Language model created by QuickLM on Wed Nov 15 17:14:23 EST 2017
Copyright (c) 1996-2010 Carnegie Mellon University and Alexander I. Rudnicky

The model is in standard ARPA format, designed by Doug Paul while he was at MITRE.

The code that was used to produce this language model is available in Open Source.
Please visit http://www.speech.cs.cmu.edu/tools/ for more information

The (fixed) discount mass is 0.5. The backoffs are computed using the ratio method.
This model based on a corpus of 8 sentences and 10 words

\data\
ngram 1=10
ngram 2=16
ngram 3=8

\1-grams:
-0.7782 </s> -0.3010
-0.7782 <s> -0.2218
-1.6812 APPLICATION -0.2218
-1.6812 CONGRATULATIONS -0.2218
-1.6812 DIFFICULTY -0.2218
-1.6812 EDUCATION -0.2218
-1.6812 MATHEMATICAL -0.2218
-1.6812 OPPORTUNITY -0.2218
-1.6812 PARTICIPATE -0.2218
-1.6812 POSSIBILITY -0.2218

\2-grams:
-1.2041 <s> APPLICATION 0.0000
-1.2041 <s> CONGRATULATIONS 0.0000
-1.2041 <s> DIFFICULTY 0.0000
-1.2041 <s> EDUCATION 0.0000
-1.2041 <s> MATHEMATICAL 0.0000
-1.2041 <s> OPPORTUNITY 0.0000
-1.2041 <s> PARTICIPATE 0.0000
-1.2041 <s> POSSIBILITY 0.0000
-0.3010 APPLICATION </s> -0.3010
-0.3010 CONGRATULATIONS </s> -0.3010
-0.3010 DIFFICULTY </s> -0.3010
-0.3010 EDUCATION </s> -0.3010
-0.3010 MATHEMATICAL </s> -0.3010
-0.3010 OPPORTUNITY </s> -0.3010
-0.3010 PARTICIPATE </s> -0.3010
-0.3010 POSSIBILITY </s> -0.3010

\3-grams:
-0.3010 <s> APPLICATION </s>
-0.3010 <s> CONGRATULATIONS </s>
-0.3010 <s> DIFFICULTY </s>
-0.3010 <s> EDUCATION </s>
-0.3010 <s> MATHEMATICAL </s>
-0.3010 <s> OPPORTUNITY </s>
-0.3010 <s> PARTICIPATE </s>
-0.3010 <s> POSSIBILITY </s>

\end\
